<?xml version="1.0"?>
<MethodSetup Method="MLP::MLPBNN">
  <GeneralInfo>
    <Info name="TMVA Release" value="4.2.1 [262657]"/>
    <Info name="ROOT Release" value="6.08/04 [395268]"/>
    <Info name="Creator" value="guido"/>
    <Info name="Date" value="Mon Jun  4 23:18:02 2018"/>
    <Info name="Host" value="Darwin macitois18.cern.ch 16.3.0 Darwin Kernel Version 16.3.0: Thu Nov 17 20:23:58 PST 2016; root:xnu-3789.31.2~1/RELEASE_X86_64 x86_64"/>
    <Info name="Dir" value="/Users/guido/Desktop/TMVA/src"/>
    <Info name="Training events" value="100000"/>
    <Info name="TrainingTime" value="6.62167459e+02"/>
    <Info name="AnalysisType" value="Classification"/>
  </GeneralInfo>
  <Options>
    <Option name="NCycles" modified="Yes">600</Option>
    <Option name="HiddenLayers" modified="Yes">N+5</Option>
    <Option name="NeuronType" modified="Yes">tanh</Option>
    <Option name="RandomSeed" modified="No">1</Option>
    <Option name="EstimatorType" modified="No">CE</Option>
    <Option name="NeuronInputType" modified="No">sum</Option>
    <Option name="V" modified="Yes">False</Option>
    <Option name="VerbosityLevel" modified="No">Default</Option>
    <Option name="VarTransform" modified="Yes">N</Option>
    <Option name="H" modified="Yes">True</Option>
    <Option name="CreateMVAPdfs" modified="No">False</Option>
    <Option name="IgnoreNegWeightsInTraining" modified="No">False</Option>
    <Option name="TrainingMethod" modified="Yes">BFGS</Option>
    <Option name="LearningRate" modified="No">2.000000e-02</Option>
    <Option name="DecayRate" modified="No">1.000000e-02</Option>
    <Option name="TestRate" modified="Yes">5</Option>
    <Option name="EpochMonitoring" modified="No">False</Option>
    <Option name="Sampling" modified="No">1.000000e+00</Option>
    <Option name="SamplingEpoch" modified="No">1.000000e+00</Option>
    <Option name="SamplingImportance" modified="No">1.000000e+00</Option>
    <Option name="SamplingTraining" modified="No">True</Option>
    <Option name="SamplingTesting" modified="No">False</Option>
    <Option name="ResetStep" modified="No">50</Option>
    <Option name="Tau" modified="No">3.000000e+00</Option>
    <Option name="BPMode" modified="No">sequential</Option>
    <Option name="BatchSize" modified="No">-1</Option>
    <Option name="ConvergenceImprove" modified="No">1.000000e-30</Option>
    <Option name="ConvergenceTests" modified="No">-1</Option>
    <Option name="UseRegulator" modified="Yes">True</Option>
    <Option name="UpdateLimit" modified="No">10000</Option>
    <Option name="CalculateErrors" modified="No">False</Option>
    <Option name="WeightRange" modified="No">1.000000e+00</Option>
  </Options>
  <Variables NVar="2">
    <Variable VarIndex="0" Expression="x1" Label="myvar1" Title="myvar1" Unit="" Internal="myvar1" Type="F" Min="-3.02048802e+00" Max="6.32916784e+00"/>
    <Variable VarIndex="1" Expression="x2" Label="myvar2" Title="myvar2" Unit="" Internal="myvar2" Type="F" Min="5.68800402e+00" Max="1.41577358e+01"/>
  </Variables>
  <Spectators NSpec="0"/>
  <Classes NClass="2">
    <Class Name="Signal" Index="0"/>
    <Class Name="Background" Index="1"/>
  </Classes>
  <Transformations NTransformations="1">
    <Transform Name="Normalize">
      <Selection>
        <Input NInputs="2">
          <Input Type="Variable" Label="myvar1" Expression="x1"/>
          <Input Type="Variable" Label="myvar2" Expression="x2"/>
        </Input>
        <Output NOutputs="2">
          <Output Type="Variable" Label="myvar1" Expression="x1"/>
          <Output Type="Variable" Label="myvar2" Expression="x2"/>
        </Output>
      </Selection>
      <Class ClassIndex="0">
        <Ranges>
          <Range Index="0" Min="-3.0204880237579346e+00" Max="5.0252003669738770e+00"/>
          <Range Index="1" Min="6.2217221260070801e+00" Max="1.4157735824584961e+01"/>
        </Ranges>
      </Class>
      <Class ClassIndex="1">
        <Ranges>
          <Range Index="0" Min="-2.4024546146392822e+00" Max="6.3291678428649902e+00"/>
          <Range Index="1" Min="5.6880040168762207e+00" Max="1.2490711212158203e+01"/>
        </Ranges>
      </Class>
      <Class ClassIndex="2">
        <Ranges>
          <Range Index="0" Min="-3.0204880237579346e+00" Max="6.3291678428649902e+00"/>
          <Range Index="1" Min="5.6880040168762207e+00" Max="1.4157735824584961e+01"/>
        </Ranges>
      </Class>
    </Transform>
  </Transformations>
  <MVAPdfs/>
  <Weights>
    <Layout NLayers="3">
      <Layer Index="0" NNeurons="3">
        <Neuron NSynapses="7">
          -1.5728911635716517e-01 1.4449990553099687e-01 6.9406045428966578e-01 4.1153622809403467e-01 -5.1222187293837662e-01 -2.5179369329714746e-01 8.2355132281012766e-01 
        </Neuron>
        <Neuron NSynapses="7">
          2.6708408290209138e+00 -9.9610304692217888e-01 1.2407967463359788e-01 -1.9276899087229276e+00 1.3235169024749829e-01 2.2960338126238033e-01 7.6139452735722479e-01 
        </Neuron>
        <Neuron NSynapses="7">
          -1.3406200280318552e+00 6.5253829761078441e-01 -2.3429055668870000e-01 8.2248686175794311e-02 5.5244854698857226e-01 1.1602215598811012e+00 9.2155712933781753e-01 
        </Neuron>
      </Layer>
      <Layer Index="1" NNeurons="8">
        <Neuron NSynapses="1">
          2.3741123172351024e+00 
        </Neuron>
        <Neuron NSynapses="1">
          -4.6027609168951084e-01 
        </Neuron>
        <Neuron NSynapses="1">
          -2.5254798421340419e+00 
        </Neuron>
        <Neuron NSynapses="1">
          -2.7541022216574773e+00 
        </Neuron>
        <Neuron NSynapses="1">
          2.0805622674278279e+00 
        </Neuron>
        <Neuron NSynapses="1">
          2.6627098298548919e+00 
        </Neuron>
        <Neuron NSynapses="1">
          -1.9536525331357930e+00 
        </Neuron>
        <Neuron NSynapses="1">
          4.5264837202790237e-01 
        </Neuron>
      </Layer>
      <Layer Index="2" NNeurons="1">
        <Neuron NSynapses="0"/>
      </Layer>
    </Layout>
    <InverseHessian NElements="841" NRows="29" NCols="29">
      <Row Index="0">
        2.5907959198494545e+01 5.7115293499583163e+02 2.3785232259489838e+01 1.9718624473117856e+01 6.9114334653093763e+01 -2.6205556106583583e+02 -1.6182573635316870e+00 4.5587313241562022e+01 -2.2415451912283306e+03 1.6504094522155562e+01 -4.0850414998217722e+01 5.9189651902695608e+01 1.2412134696079317e+01 1.4432613083261160e+01 -1.9520752294617001e+01 -8.6680051005184214e+02 -4.2860482116332037e+01 -1.9293623436669254e+01 -2.9748020483251833e+02 1.6530151679663118e+02 -8.7566324088990797e+00 -3.2362063423373780e+02 3.9321378828373327e+01 4.2736687826912009e+02 5.0412628767049915e+02 -1.2445607662629499e+02 -2.1408861570460098e+02 5.9712206131004741e+01 -1.5349575189660422e+02 
      </Row>
      <Row Index="1">
        5.7115291098457715e+02 1.8789118847971426e+04 2.5619192297661891e+02 4.3785462947153292e+02 3.4979912214559686e+03 -1.4304226403886107e+04 -2.6328804351718833e+02 8.6427213161682403e+01 -3.7606590819355100e+04 5.1078114766935408e+02 -1.2174942523337540e+03 5.4080112768078188e+03 2.1863882973871108e+02 7.8358683629797531e+02 -2.5765565530622140e+01 -2.5102722521043466e+04 -2.2824419230020135e+03 -5.2788647861762649e+02 -1.3010104529590100e+04 2.1329775801124662e+04 -3.2756953827853249e+02 -3.9634600168238235e+03 -1.6596696995554112e+02 5.0804402300736092e+03 1.2131980865240253e+04 -1.7642569633816125e+04 -8.3510618518058800e+03 2.3153592560851071e+03 -2.3601279715085120e+03 
      </Row>
      <Row Index="2">
        2.3785219622190198e+01 2.5619142981279094e+02 1.1411908664201708e+03 3.4946047487687650e+01 -2.6264894040124932e+02 -3.7450886578786958e+02 2.0594632662476644e+02 2.8981866614747111e+02 -6.5289328704749150e+03 6.6957981656122627e+02 -6.5199667307162386e+01 -1.8756317570464596e+03 -7.6637960091517243e+02 -1.1933439920293262e+02 -9.3951253973977671e+01 3.3757398272371614e+02 4.3545416882583311e+02 -2.9412020481747916e+01 -2.2380355569489107e+03 -5.6072157432371114e+03 2.1094959999388696e+01 -1.3153056542920815e+03 6.1524649436542154e+02 1.9067671463496139e+04 8.8918842249917839e+02 1.2692510142459996e+04 3.2257947621024459e+03 4.5381581532887139e+01 3.2407895764421492e+03 
      </Row>
      <Row Index="3">
        1.9718626458117114e+01 4.3785472667694387e+02 3.4946048205436512e+01 3.6772539864560713e+01 1.3935387788681223e+02 4.2670219063517266e+01 6.9238463709372136e+00 1.3168901636514028e+02 -3.6016369799771196e+03 -1.1817801301006936e+01 -5.5115003806853970e+01 1.1001387167610888e+02 -1.3676126817300153e+02 -1.1970071717747125e+01 -4.9005287146373718e+01 -7.8432979813617533e+02 -5.6915475763914536e+01 -2.2663586584206922e+01 8.2712781903049489e+01 -5.0494227459675608e+02 -1.7208482226713013e+01 -6.8393183231693649e+02 -1.5088621614383305e+02 -1.3881825140023324e+02 7.1357158159543860e+02 1.7407836299656145e+02 -4.7480292022522696e+02 1.0093990197601002e+01 -4.2419850334294574e+02 
      </Row>
      <Row Index="4">
        6.9114507130027050e+01 3.4979984281606944e+03 -2.6264931472084845e+02 1.3935396039365151e+02 7.7379821160795555e+03 2.3551455862013609e+03 -1.0322918762628233e+02 4.7670356394769624e+02 -1.2413749928826779e+04 -1.7951104982111956e+03 -2.5205214071268531e+02 6.3721438569603306e+03 -3.1234351611323268e+02 -1.8239080210609632e+02 -1.4493101835724434e+02 -2.2488672339312816e+03 -2.2472841130909637e+03 -9.9782816871776163e+01 9.0320661424007340e+03 2.0391981775617252e+04 -3.3539286389387939e+02 -2.5456402903065427e+03 -1.0936598968336023e+03 -3.5410799358102180e+04 2.8141915427999797e+03 2.5033211307801907e+04 -3.4619106940236306e+04 -7.1665862435514646e+02 -3.1907433897337702e+04 
      </Row>
      <Row Index="5">
        -2.6205535751103525e+02 -1.4304220293525361e+04 -3.7450956409730134e+02 4.2670474346203264e+01 2.3551565155043818e+03 3.0653580979728184e+04 3.1729240722421270e+02 2.2147424704667064e+03 -3.0761643731156812e+04 -3.7786116766585455e+03 8.2982387468689967e+02 -1.0282057955184966e+03 -5.9534671600676729e+03 -1.3833756329443077e+03 -9.2774127631730062e+02 2.2087224557126465e+04 1.4646607005139831e+03 2.5109115558653775e+02 3.7893003791364812e+04 -4.4468447862306974e+04 1.4609384834615707e+02 -7.4880190254874142e+03 7.9735757654398512e+03 -5.4520806080442133e+04 -3.6156604432909448e+03 3.2890280029852773e+04 -6.8071303017669561e+03 -3.7623970277543376e+03 -4.0239913066087487e+04 
      </Row>
      <Row Index="6">
        -1.6182612926640445e+00 -2.6328824755393350e+02 2.0594632905761239e+02 6.9238480693366000e+00 -1.0322896253059739e+02 3.1729286323226347e+02 6.8766810230806186e+01 9.9812315803848833e+01 -1.8892341142207990e+03 7.5377894637932215e+01 6.6482246756938022e+00 -4.0537003120101565e+02 -3.3779439309098223e+02 -4.4239388817905322e+01 -3.6485963689311987e+01 5.9363344703645316e+02 1.0202805924190622e+02 -3.1669661599116911e-01 7.0572805364506394e+01 -2.4340180020948014e+03 1.4821750496598765e+01 -4.0176891765221836e+02 2.9364165858464384e+02 2.7199607528766660e+03 7.8349523849253373e+01 1.4178228016539517e+03 1.3238345418475853e+03 2.5419338925156140e+01 7.4570091893264043e+02 
      </Row>
      <Row Index="7">
        4.5587321654421999e+01 8.6427455378532741e+01 2.8981861397473631e+02 1.3168903003728701e+02 4.7670429604807742e+02 2.2147425522322451e+03 9.9812284102656122e+01 8.2582638227349707e+02 -1.6331075217107760e+04 -1.9435130595418366e+02 -1.0565145646620388e+02 -1.2641540546139395e+02 -1.2215195198184092e+03 -1.8778210478145277e+02 -2.9505299068719467e+02 7.4110041016671846e+02 -4.9802817128898617e+01 -5.1476014218375596e+01 2.4161389240863655e+03 -7.5060131368611956e+03 -6.2973556750911641e+01 -3.6679397894790482e+03 -4.8304829774371558e+02 -9.9608112706804422e+02 2.1497999034871978e+03 2.8063888529426322e+03 -4.0362621730947365e+02 -1.9498965452797927e+02 -1.4312820507980136e+03 
      </Row>
      <Row Index="8">
        -2.2415453687620902e+03 -3.7606596242421860e+04 -6.5289327562704311e+03 -3.6016371916491044e+03 -1.2413754755307120e+04 -3.0761636779011278e+04 -1.8892337911773939e+03 -1.6331075158217456e+04 4.4604091041124653e+05 4.3691087553771531e+03 4.2089020415418709e+03 -2.0426800561125974e+03 2.6318566271626027e+04 2.7870921273895769e+03 6.3196093703775668e+03 4.6333747244306818e+04 3.0196081527748606e+03 2.1960502215903025e+03 -3.8762974128757334e+04 1.5697399278090996e+05 1.4755280452821260e+03 8.1671414072879430e+04 -1.4475899097527550e+04 1.6936753150292167e+04 -6.8832760125522516e+04 -1.2370174129291343e+04 1.4594023297676096e+04 3.8907329892319467e+01 3.2685040262760431e+04 
      </Row>
      <Row Index="9">
        1.6504053096872667e+01 5.1077982936080122e+02 6.6957993179004006e+02 -1.1817841748717910e+01 -1.7951116246692993e+03 -3.7786111043742476e+03 7.5377954927280371e+01 -1.9435127087870205e+02 4.3691101747928342e+03 1.3894676384990314e+03 -7.5582766487063054e+01 -2.2426475158744115e+03 1.5034550526347230e+03 1.4369624002634680e+02 8.5335084047645068e+01 -2.4250558000489327e+03 6.0464574703412870e+02 -1.4055499513928812e+01 -7.7200952329300108e+03 4.1056103576282649e+03 7.9227302993864882e+01 7.3254315409249148e+02 -1.7114866596807381e+03 2.5479539789078688e+04 2.6454159622429768e+02 8.5151415725652623e+03 5.9794165247284582e+03 4.3146826343421128e+02 7.0904491799883990e+03 
      </Row>
      <Row Index="10">
        -4.0850414959650095e+01 -1.2174943417341801e+03 -6.5199694640067491e+01 -5.5114997184556614e+01 -2.5205162560103335e+02 8.2982451077304154e+02 6.6482148498089373e+00 -1.0565142481736166e+02 4.2089014160865609e+03 -7.5582883217525492e+01 1.2456617372908897e+02 -2.9491265492948008e+02 3.3709322433892567e+01 -2.9190863247007144e+01 3.6906356665275325e+01 2.2610591699922225e+03 1.4789456093752915e+02 4.4723646030110885e+01 8.9744410785837817e+02 -1.1828400525747099e+03 3.1151188251977366e+01 7.0277901873427504e+02 4.5120776505577362e+02 -1.0923274655169778e+03 -1.2606355207559739e+03 -1.6352440537592656e+01 7.5185365027384489e+02 -1.1142828107675241e+02 4.9027266310014511e+02 
      </Row>
      <Row Index="11">
        5.9189752727503219e+01 5.4080155079567194e+03 -1.8756317672679033e+03 1.1001389568668674e+02 6.3721417048503481e+03 -1.0282132508611248e+03 -4.0537007904390339e+02 -1.2641586997173727e+02 -2.0426770153851830e+03 -2.2426464675216307e+03 -2.9491293221660453e+02 8.9906327145326159e+03 -4.1423315485024068e+02 2.2682911864206937e+02 8.9007438344415277e+01 -4.3886857766384237e+03 -2.7927767956730731e+03 -1.0605101330919864e+02 7.3155468495068917e+03 2.4304236095708173e+04 -3.2159071133477175e+02 -1.9345922039581242e+02 -2.1462261725521380e+03 -5.4875028035390889e+04 2.3045301996481098e+03 -1.4158861801068866e+04 -2.2523806587710875e+04 6.1801918578260853e+01 -2.7326165813312913e+04 
      </Row>
      <Row Index="12">
        1.2412232311249909e+01 2.1864419897062908e+02 -7.6638011607840781e+02 -1.3676127510865808e+02 -3.1234544193467229e+02 -5.9534778074768228e+03 -3.3779456898955686e+02 -1.2215203363037726e+03 2.6318575819084588e+04 1.5034559115886441e+03 3.3709023290849927e+01 -4.1423201338115371e+02 8.8648493620452082e+03 4.0323334849919229e+02 4.1783649325098668e+02 -8.1457857756903613e+03 3.0673301664987434e+01 4.3713148604239748e+01 -9.9960048300075105e+03 3.8772189473030237e+04 3.3080105646321243e+01 5.1317879437182846e+03 -5.7961894105560432e+03 1.3168725896017126e+04 -1.6841074284702900e+03 3.1675472788108415e+04 -3.3593514925366610e+04 -2.2338128815471850e+02 2.1844912224442082e+03 
      </Row>
      <Row Index="13">
        1.4432604228915920e+01 7.8358656293376771e+02 -1.1933434383788665e+02 -1.1970084192439572e+01 -1.8239139841001497e+02 -1.3833757047071213e+03 -4.4239362687761968e+01 -1.8778210281028987e+02 2.7870924438623497e+03 1.4369629872034901e+02 -2.9190834366790341e+01 2.2682869119946318e+02 4.0323279693525819e+02 1.2010157037796171e+02 7.1769797243964149e+01 -1.2039876320235132e+03 -4.3222679312645688e+01 -8.7478826425740088e+00 -1.6050394122401865e+03 2.9957515082551772e+03 1.6522904264814624e+01 6.9738328911231906e+02 -2.7761674239908422e+02 9.7514711815349801e+02 1.3050399804080914e+00 -2.5426412818339413e+03 8.0099790780178614e+02 2.4665218257119631e+02 8.0488568330984197e+02 
      </Row>
      <Row Index="14">
        -1.9520756632399980e+01 -2.5765695955603860e+01 -9.3951233309713643e+01 -4.9005293332284964e+01 -1.4493130442246866e+02 -9.2774126208616985e+02 -3.6485950606559982e+01 -2.9505298947474057e+02 6.3196094251552768e+03 8.5335092156850465e+01 3.6906371958237969e+01 8.9007249642587439e+01 4.1783616680380533e+02 7.1769795655140797e+01 1.1137827551054147e+02 -4.4612857392437107e+01 2.2174473293426313e+00 1.9669368170841665e+01 -1.0055490869716367e+03 2.9494685951828842e+03 2.0311363600350088e+01 1.3278627000342794e+03 -2.3879212582284008e+01 5.5360828786901345e+02 -8.1196266027358035e+02 -1.0230086603894514e+03 2.3765804177438440e+02 8.1274702861055744e+01 6.3130720754835943e+02 
      </Row>
      <Row Index="15">
        -8.6680055577323583e+02 -2.5102726817162766e+04 3.3757334781379905e+02 -7.8432964364182408e+02 -2.2488534954243296e+03 2.2087243898642784e+04 5.9363322663097642e+02 7.4110142474752502e+02 4.6333730875944282e+04 -2.4250590293372079e+03 2.2610592923841396e+03 -4.3886789816095725e+03 -8.1457777025130672e+03 -1.2039885319454188e+03 -4.4613324182228098e+01 6.2881987542584378e+04 2.3205200403469694e+03 8.1278873994936021e+02 2.6726340762347503e+04 -5.7369641877077302e+04 3.8329955749030574e+02 2.3607300533972875e+03 4.0572638482847046e+03 -2.6395852584657976e+04 -2.1194476155469682e+04 -5.7255257980448732e+03 2.5600465559956752e+04 -2.4169178485533380e+03 1.4780647251005386e+04 
      </Row>
      <Row Index="16">
        -4.2860507976588451e+01 -2.2824431098215064e+03 4.3545416100206603e+02 -5.6915474944154994e+01 -2.2472830409166854e+03 1.4646631711375830e+03 1.0202806192279240e+02 -4.9802665778464871e+01 3.0196068442576943e+03 6.0464539020273378e+02 1.4789463069050726e+02 -2.7927765703882492e+03 3.0674032298016755e+01 -4.3222818463869771e+01 2.2173839261267858e+00 2.3205216148586810e+03 1.0788699719959936e+03 5.4322464925484383e+01 -8.8880467679816638e+02 -8.5783649716047039e+03 1.5505601380080856e+02 5.4457941211034733e+02 1.0617641818436846e+03 1.4764095041922068e+04 -1.3413411064867341e+03 4.5470335081360463e+03 7.7498068644382874e+03 -6.3968160412417205e+01 7.1834240414414189e+03 
      </Row>
      <Row Index="17">
        -1.9293623544496967e+01 -5.2788650680739227e+02 -2.9412031002314592e+01 -2.2663584737522456e+01 -9.9782651359297574e+01 2.5109135710340416e+02 -3.1670004757370407e-01 -5.1476005591408239e+01 2.1960500468464270e+03 -1.4055538950612110e+01 4.4723646384058043e+01 -1.0605092070889941e+02 4.3713242846056119e+01 -8.7478916644703304e+00 1.9669363792076126e+01 8.1278870449535464e+02 5.4322441497969443e+01 1.9473746786173919e+01 2.4386577210655349e+02 -1.2179816026079766e+02 1.1496569965977905e+01 3.4031846878237872e+02 2.0625088237798650e+01 -2.9484726645447654e+02 -5.1536163585786346e+02 1.4728044304266928e+02 2.6317726180307562e+02 -4.8422893610561246e+01 1.6443142642743251e+02 
      </Row>
      <Row Index="18">
        -2.9747984826002357e+02 -1.3010092808693240e+04 -2.2380368960943815e+03 8.2713158160506282e+01 9.0320797953713918e+03 3.7892998999395568e+04 7.0572102849546354e+01 2.4161385104507208e+03 -3.8762982989617391e+04 -7.7200957013700472e+03 8.9744303833549202e+02 7.3155580573069310e+03 -9.9959920370926848e+03 -1.6050389951688994e+03 -1.0055489855107589e+03 2.6726309643325727e+04 -8.8880851789735948e+02 2.4386542412780909e+02 5.8011422452068640e+04 -4.9379111292543123e+04 -1.1198405073785761e+02 -8.4239661106449857e+03 1.2174965455123227e+04 -1.2949153688369921e+05 -3.8074695458063070e+03 8.2296733305861271e+03 -4.1529785906468955e+04 -4.5420232827403270e+03 -5.0677548650143261e+04 
      </Row>
      <Row Index="19">
        1.6530196917155990e+02 2.1329800188026624e+04 -5.6072140483642288e+03 -5.0494251505716238e+02 2.0391952851533308e+04 -4.4468512289038452e+04 -2.4340178598163184e+03 -7.5060173700214364e+03 1.5697404457269190e+05 4.1056203592184538e+03 -1.1828413688237197e+03 2.4304224369981879e+04 3.8772177016223082e+04 2.9957546755607473e+03 2.9494703561046626e+03 -5.7369672734736698e+04 -8.5783632509647923e+03 -1.2179857175846701e+02 -4.9379208356135336e+04 3.2094706747146422e+05 -8.6771621072807466e+02 2.9776559917278180e+04 -4.0485203393874319e+04 -2.7208780597704477e+04 -1.7289263564294670e+03 1.7040794223592000e+05 -8.6669306130907047e+04 8.9325030615719879e+02 -2.1468394936325288e+05 
      </Row>
      <Row Index="20">
        -8.7566362575905714e+00 -3.2756971948887076e+02 2.1094964437775161e+01 -1.7208482376413031e+01 -3.3539273900835497e+02 1.4609421455195570e+02 1.4821752920826839e+01 -6.2973533178017533e+01 1.4755278105937014e+03 7.9227254570187057e+01 3.1151199329617384e+01 -3.2159070344222789e+02 3.3080171862313364e+01 1.6522883812941927e+01 2.0311353766840284e+01 3.8329982192206717e+02 1.5505602230536897e+02 1.1496573527548833e+01 -1.1198351044238143e+02 -8.6771662308536656e+02 3.6675239421511947e+01 3.2407565932912451e+02 2.4159532853946621e+02 1.5495556676247115e+03 -3.5569258742782358e+02 7.1007935630689872e+01 1.1938568172488312e+03 4.3237190706672443e+01 9.5222917060563384e+02 
      </Row>
      <Row Index="21">
        -3.2362067102678338e+02 -3.9634612490090622e+03 -1.3153055090645512e+03 -6.8393187735974425e+02 -2.5456422188810066e+03 -7.4880179889079391e+03 -4.0176880913144123e+02 -3.6679397302531579e+03 8.1671413210347149e+04 7.3254303315605353e+02 7.0277915498997390e+02 -1.9346053783670322e+02 5.1317852094691370e+03 6.9738323472013508e+02 1.3278626753844983e+03 2.3607340890132182e+03 5.4457988756173461e+02 3.4031850563271519e+02 -8.4239654515707298e+03 2.9776544984699569e+04 3.2407573373107380e+02 1.7154902814580910e+04 1.7513626239185915e+03 2.9192821551576253e+03 -1.2120870826396902e+04 -9.9505888579567818e+03 3.6723845841357479e+03 4.5954208599876256e+02 7.0465139032222905e+03 
      </Row>
      <Row Index="22">
        3.9321354736858666e+01 -1.6596960123766621e+02 6.1524665387719233e+02 -1.5088614118717669e+02 -1.0936563013246378e+03 7.9735840174303048e+03 2.9364170035907591e+02 -4.8304760752925358e+02 -1.4475910401524263e+04 -1.7114876153484170e+03 4.5120784948386972e+02 -2.1462253486145755e+03 -5.7961878118805307e+03 -2.7761716243639239e+02 -2.3879498734546360e+01 4.0572661323879402e+03 1.0617641605329966e+03 2.0625109090579599e+01 1.2174976834817315e+04 -4.0485203327166499e+04 2.4159529086230441e+02 1.7513599145248086e+03 1.8356914399063946e+04 -1.0574181607411871e+04 -2.6139410990854467e+03 -2.3320048885811517e+04 1.8631842514825090e+04 1.1986461837792513e+02 5.3777126638487753e+03 
      </Row>
      <Row Index="23">
        4.2736602024720924e+02 5.0804097563187825e+03 1.9067673387162882e+04 -1.3881886525778100e+02 -3.5410809962147381e+04 -5.4520777880000416e+04 2.7199617844307795e+03 -9.9607920640544035e+02 1.6936762413966469e+04 2.5479537184668367e+04 -1.0923250809777528e+03 -5.4875043824291235e+04 1.3168717164786125e+04 9.7514507891691756e+02 5.5360760374984238e+02 -2.6395788269027311e+04 1.4764100970345718e+04 -2.9484646206800971e+02 -1.2949150037025868e+05 -2.7208960034360891e+04 1.5495563931057404e+03 2.9192796123789012e+03 -1.0574166218393526e+04 5.4155869243752898e+05 6.4649386230483651e+03 1.8773104258712917e+05 1.4911100667690655e+05 6.5516582565790814e+03 1.6367689641714314e+05 
      </Row>
      <Row Index="24">
        5.0412630979910136e+02 1.2131982370719932e+04 8.8918859499965220e+02 7.1357155003846492e+02 2.8141880132055521e+03 -3.6156665058841718e+03 7.8349558185109345e+01 2.1497996044985630e+03 -6.8832754764933925e+04 2.6454266332581301e+02 -1.2606355965468829e+03 2.3045284622353238e+03 -1.6841087957469099e+03 1.3053204740099318e+00 -8.1196251848576685e+02 -2.1194477265632249e+04 -1.3413407450279278e+03 -5.1536165500821699e+02 -3.8074792012133184e+03 -1.7289304811340371e+03 -3.5569252910327486e+02 -1.2120869690693044e+04 -2.6139415828297701e+03 6.4649580828916751e+03 1.5174170024004496e+04 3.1680277816302150e+03 -8.6808709531060213e+03 7.8000817377773592e+02 -7.4651926360668358e+03 
      </Row>
      <Row Index="25">
        -1.2445465450416668e+02 -1.7642506829706952e+04 1.2692505575361633e+04 1.7407908169378061e+02 2.5033225216124440e+04 3.2890183110208716e+04 1.4178201432311907e+03 2.8063817131803371e+03 -1.2370109386704396e+04 8.5151495929988014e+03 -1.6356992668588646e+01 -1.4158835952706228e+04 3.1675511237724160e+04 -2.5426364554028260e+03 -1.0230059145764099e+03 -5.7256543885469437e+03 4.5470214973426282e+03 1.4727903924688871e+02 8.2295692345182761e+03 1.7040821830911445e+05 7.1006415335126803e+01 -9.9505687558134669e+03 -2.3320091508647445e+04 1.8773108339038381e+05 3.1680580298220739e+03 6.3518336135700869e+05 -2.4222034104880795e+05 -1.1207163816238362e+04 -2.1488328456820190e+05 
      </Row>
      <Row Index="26">
        -2.1409078803763259e+02 -8.3511617603457998e+03 3.2258113793250523e+03 -4.7480409793579020e+02 -3.4619137651196332e+04 -6.8070006997698219e+03 1.3238398247193545e+03 -4.0361573605937883e+02 1.4593943614805117e+04 5.9794154351781399e+03 7.5186025860760128e+02 -2.2523872452613956e+04 -3.3593554325441597e+04 8.0099038128752727e+02 2.3765405727399047e+02 2.5600651135665015e+04 7.7498327946927129e+03 2.6317940225376515e+02 -4.1529669519219111e+04 -8.6669765328535577e+04 1.1938599733262963e+03 3.6723561168887245e+03 1.8631898196592898e+04 1.4911118519826300e+05 -8.6809161648245063e+03 -2.4222014364958266e+05 7.2735500732307695e+05 8.5291748848825882e+03 -2.8630448282506806e+05 
      </Row>
      <Row Index="27">
        5.9712154894532887e+01 2.3153572553506674e+03 4.5381832055825726e+01 1.0093948595706024e+01 -7.1666013114615816e+02 -3.7623951769099240e+03 2.5419452022961195e+01 -1.9498949353707576e+02 3.8906817887575016e+01 4.3146825216060233e+02 -1.1142812219950792e+02 6.1800364380519568e+01 -2.2338298463858519e+02 2.4665207049961828e+02 8.1274646666848639e+01 -2.4169132033034311e+03 -6.3967587083395131e+01 -4.8422843112785358e+01 -4.5420219619174768e+03 8.9323730255656028e+02 4.3237266763192110e+01 4.5954176619703367e+02 1.1986623594718492e+02 6.5516624074834663e+03 7.8000692249603162e+02 -1.1207172111464763e+04 8.5291885238685136e+03 9.5622973433084746e+02 4.9589054759382470e+03 
      </Row>
      <Row Index="28">
        -1.5349588726897491e+02 -2.3601264546164311e+03 3.2407788692587055e+03 -4.2419840658595785e+02 -3.1907409073092742e+04 -4.0239892876093742e+04 7.4569903265777975e+02 -1.4312820294741541e+03 3.2685040905253962e+04 7.0904358539649984e+03 4.9027304608002305e+02 -2.7326132954222849e+04 2.1844959470310714e+03 8.0488517175451852e+02 6.3130711203441024e+02 1.4780652013984742e+04 7.1834140315735276e+03 1.6443151023003156e+02 -5.0677485133693102e+04 -2.1468389937171224e+05 9.5222790154698305e+02 7.0465137918257969e+03 5.3777100411496649e+03 1.6367659959809200e+05 -7.4651945826697629e+03 -2.1488333668213230e+05 -2.8630472928833280e+05 4.9589003843861865e+03 6.6853783030818554e+05 
      </Row>
    </InverseHessian>
  </Weights>
</MethodSetup>
